4.751720634589103875e-01
3.523118012992707548e-01
5.418651017167528533e-02
8.417905830114436050e-01
-4.851174466843133914e-01
-2.934436936380101502e-01
4.639445752448061872e-02
4.963902954368141218e-01
6.874780105417754861e-01
7.051902629099608966e-01
2.940938068730438171e-01
-6.018976620116314041e-02
8.511402133014602800e-01
-6.587466584842519568e-01
4.140678068012959567e-01
6.928583887132561125e-01
-2.004916435498113603e-01
-6.129360863392760983e-01
-9.590623549160633143e-02
-4.797243054704966037e-01
-3.387760917887062129e-01
-9.091401602439299623e-01
-5.591345667655819307e-01
1.566576021520643958e-01
6.580438560204580067e-01
-8.708928194563048120e-01
1.895489693889905736e-01
-2.718975259816475698e-01
3.994866847348076955e-01
5.527306267684601870e-01
8.504991775624517469e-01
-8.807345609948978860e-01
4.771235521422595993e-01
3.145104239285251846e-01
6.717106698025987477e-01
4.253522237845553527e-02
4.327532775760142836e-02
8.080219487503069453e-02
7.712195499222079809e-01
-4.174009268197683697e-01
-6.385554354826147305e-01
-2.019225516568394774e-01
-5.129944750317366742e-01
-9.976726162825929611e-01
5.157110979661518879e-01
1.986634708580024555e-01
3.090048272786679040e-01
-1.363488328411694150e-01
-3.866277266635804177e-01
-9.920015163361454169e-01
5.174006344208991193e-01
-3.942665585024860975e-01
-9.423916172537674107e-01
-2.510051462247354578e-02
-9.376934236202041362e-01
-6.811871770371659141e-01
1.428157537384171782e-01
-4.541830489433457130e-01
1.160601382733421200e-01
-8.587064585402922612e-01
1.362455930776069468e-01
-5.355298293571484347e-01
1.641357367626814501e-01
7.667249791699084494e-01
6.392782210050222957e-01
6.528816097427098120e-01
-4.596793049260587682e-02
-2.639518655288630722e-01
4.604370939329668205e-02
5.899715974435899568e-01
-6.592493620788271169e-01
7.840248077513343183e-01
9.945299824418922519e-02
-1.803845199181861036e-01
-6.722604338512759847e-01
-8.126555101982413376e-01
-8.730215278813471258e-01
-5.790895736334772392e-01
-4.878909702548687166e-01
-5.320663963818910158e-01
-5.707201459622988082e-01
1.771903596323567698e-01
1.773605207709823828e-01
-6.119571165011230551e-01
-5.385119386250839524e-01
2.503287506698360920e-02
7.360072525292621348e-01
-1.449228176515532929e-01
4.216459263005187807e-01
5.988011954455082497e-01
-2.406591142871377653e-01
-7.380184258675277498e-01
-4.920903333348271569e-01
-3.599503692169729874e-01
-3.856006900897600564e-01
6.762837789251078258e-01
6.290527571512489757e-01
-5.671915696973901522e-01
-5.698075532043592739e-01
-6.606198287084504850e-01
-9.187114460508535307e-01
-3.418402586864219272e-01
1.785850483496584928e-01
8.152497604907106288e-01
-1.124580512596636550e-01
5.285505349173095224e-01
-2.482523966167929641e-01
-6.231131915551360034e-01
7.890710333958599332e-01
-5.035476854546853120e-01
8.932797342178687705e-01
7.006204683516905618e-01
-3.206857278489838037e-01
9.185079877701767259e-01
-6.117663089515388286e-01
-9.208589335184973468e-01
6.824674898963229985e-01
-9.591332615205966361e-01
1.144684663092338656e-01
-4.934916254512165534e-01
-9.750811411642698046e-01
5.799668178150491071e-01
2.522349081720851594e-01
4.306859874213603279e-01
-7.002293808560079436e-01
8.673511939341791432e-01
-3.901282694440582621e-01
-7.271716135397515712e-01
3.702188702273652710e-01
-6.068519539668389973e-01
-4.637816806230548594e-01
-8.089392699237389905e-01
7.240635024250926532e-01
3.882435312375827081e-04
-5.981308278615707907e-01
-2.543306753040198986e-02
-4.832711774050490461e-01
-1.447035152245119971e-01
4.423940923474967701e-01
8.182336653634272872e-02
5.270454661696033494e-01
-1.656795075582205568e-01
3.573022526336531168e-01
8.344338069382887246e-01
-3.778112801992409842e-01
-3.930777983430615019e-01
5.405483814642040308e-01
4.314184521009026829e-01
5.265037885538987883e-01
4.499756507815374507e-01
9.879007464428216090e-02
-2.963850546830137378e-01
4.646966128380695116e-01
-1.799583304363357450e-01
-2.790431638792268410e-01
-9.715676302962807931e-01
3.180593013743619468e-01
-6.138105229366500604e-01
-2.696603478663673892e-01
-3.063381817333772905e-01
7.308533522571911689e-01
8.265564174758184279e-01
7.408688414414766887e-01
6.879729166482522196e-01
9.922751986946310998e-01
9.303628634539167219e-01
-1.018525038749260730e-01
-4.501976891476327514e-01
2.587474060557904965e-01
-9.822833319633854643e-01
8.031265896287179684e-01
-6.954405394595942758e-01
-4.813408850689280261e-01
-8.600300464530129529e-01
3.596734358549369404e-01
6.308471440272360731e-01
-9.195600158332710716e-01
-9.385144421436644180e-01
-3.519312846524103727e-02
9.863112129114034454e-01
3.151923525265338255e-01
5.356812590211754710e-01
2.326272834233225895e-01
4.078197113975736143e-01
6.817285272454347567e-01
8.674853390311149104e-01
-7.345285197095795526e-01
7.977774178549189577e-01
5.808194543747242644e-01
-9.056056699706792612e-01
5.217393846406828128e-01
-4.925678272043712558e-01
-9.495512083589404684e-01
-3.191626610826490684e-01
6.357347963910809918e-01
9.134192393308546709e-01
-2.911454612672307318e-01
-5.821722786044737363e-01
1.208071267820842037e-01
5.183897390337147693e-01
5.255890493151585963e-01
-6.352657744104108772e-01
-9.470181588511688009e-01
9.018955829197834451e-01
8.317878632988172649e-01
-6.446208112051424743e-01
-7.326142710460312735e-01
1.482073644119724642e-01
-6.846775146611469021e-01
-2.695404821582653709e-01
9.935395501573297539e-01
-1.291956144990066835e-01
-9.005255312374661480e-01
5.353680781426014557e-01
-6.743063287397212946e-01
3.868735707651433375e-01
7.756118194674981314e-01
-4.307122393249432912e-01
9.657402939372403683e-01
3.963156593575204445e-01
1.971761451364320850e-01
-8.124946458664088489e-01
8.858246426458876721e-01
-8.918039775427870630e-01
-7.151965554643373579e-01
1.009083349476931624e-01
1.546699191546445917e-01
4.373558292284350224e-01
1.425242662996945020e-01
5.405052219413363224e-01
-6.192316957861498244e-02
8.276819910452258566e-02
9.404058809534865393e-01
9.818493036360117499e-01
-8.858099695813133334e-02
3.918434883969799110e-01
7.519887410126530058e-01
-3.431140340824316848e-01
8.494745487916004478e-01
-7.545581213860489411e-01
1.258963890049282219e-01
-4.288525380953214783e-01
-8.444806702971969781e-01
4.580849545589896210e-01
1.019329984682482371e+00
-6.574222301187860884e-01
-6.857060065330121690e-01
-6.161031847877009859e-01
-2.044595327972194843e-01
6.060989941548050597e-01
-7.521491586016878506e-01
6.189782875439537868e-01
-5.632975763791779888e-01
-9.350151828338008064e-01
-1.826508634903231676e-01
6.871977679746552603e-01
-3.392644670977389976e-01
4.832811617841505925e-01
8.297641949768272962e-01
-5.417582993023550841e-01
-2.479081674844585415e-01
-8.037500853508962664e-04
8.936200162975836969e-01
-8.454257838439376282e-01
-9.641360308586553740e-02
-4.583851515764187923e-01
4.513552851418250328e-02
-1.381098725081890410e-02
5.496219402786064467e-01
-1.325357729809016338e-01
-8.715559101934345909e-01
-1.074844231255957239e-02
-5.208448277289332573e-01
7.903090813758363309e-01
-2.679325285780940202e-01
5.672405327818990095e-01
2.561865624601000063e-02
4.149744506590189452e-01
5.069019149161754223e-01
9.362144878046123608e-01
8.996765577101333289e-01
8.348912738672213674e-02
-4.026562548628946914e-01
5.753053845071195438e-01
3.519782328765848067e-01
6.774039247103986749e-01
-7.578564393295527113e-01
8.024772108847979535e-01
-1.859232629910350099e-01
-9.063833689523907999e-01
5.323184075365213624e-02
-2.299987524316361998e-01
-2.281833208702530036e-01
-4.572267368097531759e-01
-9.148846169565620634e-02
-5.889093792787006842e-01
2.743799416672551561e-01
7.114139596535479226e-01
-2.567115062401355008e-01
8.704627685984989149e-01
